svm_type c_svc
kernel_type rbf
gamma 0.5
nr_class 2
total_sv 13
rho 8.0540558118926082
label 1 0
nr_sv 6 7
SV
100 1:0.634 2:0.264 
38.109224155779955 1:0.608 2:0.318 
100 1:0.556 2:0.215 
100 1:0.403 2:0.237 
100 1:0.481 2:0.149 
100 1:0.437 2:0.211 
-100 1:0.666 2:0.091 
-100 1:0.243 2:0.267 
-30.823704200986835 1:0.343 2:0.099 
-100 1:0.639 2:0.161 
-100 1:0.657 2:0.198 
-100 1:0.36 2:0.37 
-7.2855199547931422 1:0.719 2:0.103 
